connection_name,component_1,component_2,component_3,component_4,component_5,component_6,component_7,component_8,component_9,component_10,component_11,component_12,component_13,component_14,component_15,component_16,component_17,component_18,component_19,component_20,component_21,component_22,component_23,component_24,component_25,component_26,component_27,component_28,component_29,component_30
L-A11l - R-A10m,-0.08810251228435516,0.18587236433990756,-0.0077575554256243545,0.044504145663870225,0.06009560856479507,-0.04949856032526265,-0.02278368660600869,-0.14985193287021972,-0.05188737741312828,-0.013285546588090578,0.0228680557610181,-0.022720817624262753,-0.02013663672278837,0.19297219836542331,-0.05105704885456458,-0.10826582821904993,-0.07216556070105337,0.010698453182234167,-0.1457896846752764,0.29782825957403924,0.00583335504211909,0.0028307086544687486,0.20640754712255152,-0.054084324244489244,-0.08002910641456568,0.061766624069593164,-0.08996626493144558,0.06553658564541216,-0.08048956550204638,0.14126659833498184
R-A13 - R-A10m,-0.07407688357432984,0.15648580334749446,-0.017827632741607643,0.016281547550627926,-0.02309008916390226,-0.059426587594033714,-0.015979672885124096,-0.14678893514175181,-0.053105681998045176,-0.02440248364682317,0.04880280542825173,-0.11314038563350542,0.026914746201153583,0.18380742559788993,0.012106662030364118,0.07838726613540786,0.09103382219366349,0.14865323136366282,-0.11489270767855209,0.12329119964325838,0.03841548825398255,-0.24023792886295928,-0.008459186900914111,-0.0892682172550088,0.24393546183821582,0.02623467055309557,0.025958795591146396,-0.008631876474795195,-0.05080570450826001,0.06596427786607956
R-A13 - L-A11l,-0.052828290678146206,0.11451176077278535,-0.047267586701467634,0.11194364757130598,0.05263392538773817,-0.10365065546721453,0.0739724875248585,-0.06935730152619946,-0.0006438615909628159,-0.016037083127593384,0.034466361884244956,0.015973623585341025,0.01813781436304892,0.034624914195110434,-0.12440859848636962,-0.11440033360666406,-0.025570985394155622,0.0073022798039142495,-0.14907699800749058,-0.023047697650309118,-0.011539087636252105,0.015628565897687102,-0.012968639769671712,-0.09492332313519752,-0.0632534411172661,0.010656506849029619,-0.13115413468453668,-0.03275550247537244,-0.30918809332742014,-0.06216685967492512
L-A38m - R-A10m,-0.10826083955744235,0.11417713741749702,0.04061087989046394,-0.06596460562113571,-0.03557029497649719,-0.14372057561644383,-0.13098489534286423,-0.0557556350511752,-0.20123895641068248,-0.01586845921530379,-0.1540219268243409,0.09444613460432014,-0.21910380804894558,0.06706145372407252,-0.087615064471237,-0.083215488778597,0.01237959220856305,-0.02390728619439505,-0.026270619862998584,0.10438983234328808,-0.07950465339342914,0.0321985175793073,0.04957982338054662,-0.03646924995526089,0.0868712500582543,-0.16252688010424454,-0.012209453195449346,-0.20418366490712844,0.03446033921076746,-0.08825459613357307
L-A38m - L-A11l,-0.09270015884793976,0.08596140963024573,-0.02029130100627967,0.044739277962516394,0.01145467277973461,-0.18016889950793402,0.005596049119343874,0.04749939622158228,0.05140427272630885,0.13187347315294817,0.04957636055333051,0.09114308100502741,-0.17693325179943947,-0.13192686286056984,0.07989494715545442,-0.09997920182374183,-0.053490113255930574,0.1400262897132447,-0.12370813664152787,-0.14821980125141493,-0.21042006790919748,-0.061104144926777695,0.035580145180845096,-0.07929787301842657,0.045339555501535705,0.020811877807791493,-0.022964817918851216,-0.16633124011393022,-0.17541749623294162,0.0049164718516282735
L-A38m - R-A13,-0.09651519257920263,0.04876116771843286,-0.024766011806967483,0.02611316492898863,0.06680056447890265,-0.15610151961657898,0.10576207295939491,0.16173625813025558,-0.15188346510269668,-0.08442518716945462,-0.08716599861240559,0.020606317008822934,-0.16424000856028845,-0.10961438120943956,0.062082799942794725,-0.08779442438860033,-0.11779456022371806,0.15579020894260212,0.04809754674853656,-0.014659995049562752,-0.019559766086510392,0.00912002713267716,-0.003722440234947194,-0.1139237949373379,0.042423621973538606,0.12092020969625601,0.01834439434186093,-0.19649713599758153,-0.1928505297299322,0.030643152541825952
R-A22c - R-A10m,-0.07698431412828208,0.12995186038526962,0.07632855092013371,0.015708038008013736,-0.08560611702634469,0.0007687166763355457,-0.11229554086286969,-0.18878950803542466,-0.10167578773288383,-0.004011766585852915,0.08876832235444525,-0.06029539161161541,-0.0015904102602759679,-0.011961889347536028,0.12586137970765882,0.0365126376654393,0.0036178420990535948,0.16033767641825747,-0.05688580907911009,0.03895936197432956,0.082709059069715,-0.008023037751408703,-0.03844091130514496,-0.058459481695818216,-0.11184430095839172,0.10724248548026086,0.01759198418776196,0.05188717860420525,-0.06001149249936104,-0.2020800477127957
R-A22c - L-A11l,-0.0911859829305345,0.1500519178342995,0.0330870014395587,0.05834159161595398,0.04743442789822777,-0.12139887400436108,0.016142365003200113,0.01819407820448632,0.14831549585856554,-0.06437753052634854,0.13752306246143514,0.02721602567857763,-0.046068273960530134,0.06328998161684024,-0.01018250071917777,-0.052032927261479164,0.07970993737551464,-0.1618429302776968,0.07058686263526873,0.1794922473100679,-0.05906999314323581,0.10132098514542111,-0.062248589429986706,-0.005564207369259326,-0.02337853050010867,0.10715256596665027,0.07856048544363763,-0.050492976904582085,0.03977479329947324,-0.054201292911695786
R-A22c - R-A13,-0.080129534149981,0.08502129132675107,0.02530576987394706,0.06378756275842334,0.01993044735162025,-0.10781108257635791,0.04899555016224708,0.0438422115203321,0.07303493837093825,-0.08547996348295961,0.13996529962138562,-0.11287023143179399,-0.10400240447836397,0.11602710155970596,-0.07987559922262902,0.22851648098556354,0.18702619560889383,-0.042309095980386124,-0.014667839908307986,0.0052369157721839366,0.04320385771740822,-0.020682498624631205,-0.1115557344371875,-0.1461452667564161,0.07618163501297434,0.07522316995189574,0.0850973419199679,-0.037880331345558224,0.01879408304355551,0.010267914214759893
R-A22c - L-A38m,-0.11551499546879858,0.017305706564568958,-0.007625309058116536,-0.08283062977507114,0.032758480340748075,-0.10885332232535483,-0.10521644870513952,0.11642216949662829,-0.11424228689516724,0.05749538027740615,0.11000106273790922,0.012181718256408486,-0.30530149117048067,0.06025447059514688,-0.07362334712815682,0.15877156741430876,0.0064473700368231635,-0.006872840707456874,0.02248315466212722,-0.015469151710412021,-0.006557624302312357,0.07352374002486677,0.13423429285057695,0.0741811299418273,-0.17094866080171797,0.003034721584551413,0.1273733246051931,-0.033029268392797906,0.09137803285496386,0.02311213080901596
L-A22r - R-A10m,-0.0511323694408631,0.14546518234992167,0.1165659506037654,0.04358097521855886,-0.1219134080813191,-0.06285816896496357,-0.0482831543664579,-0.15096664579455008,-0.10307429812287,-0.138946489378715,-0.016272229875474484,0.12221482508653234,-0.0057389642412360425,-0.10336600931484967,0.09081305871562172,0.0053127892044419756,0.08134653002769869,0.12723439827627087,0.06583176314628104,0.024956246251570377,0.029141124369515926,-0.09782758065540943,-0.024138542177208427,0.07381953588474531,-0.1368700091449363,0.06233567270932309,-0.16504403232633727,0.12394637711547415,0.07523243239819272,0.20016180753995505
L-A22r - L-A11l,-0.08735505093058596,0.16479667336478665,0.02012808665985305,0.13517266834676506,0.011975192746621621,-0.17675868429183134,0.08945249661624796,0.06183235601644878,0.15524876924592168,-0.11754693056821111,0.1443265016340786,0.12065199371720767,0.009382639327112322,0.0564681172414003,-0.013130055882631636,-0.1127064051787714,0.05870765402184637,-0.04798674374920114,0.05986956797923271,0.1512591792603098,-0.040838053826134736,-0.040060353435197725,0.1458817665416106,0.09282605833297379,-0.09734538961505942,0.15431314085804235,0.0008798228595331414,0.018205888675856194,0.05466593031869883,0.15800626885366675
L-A22r - R-A13,-0.07699133169385151,0.06286321640212085,0.006731314697609514,0.0730464353711485,-0.03008080078524944,-0.13207134167475051,0.1236281356491486,0.09844529296480417,0.05129840356176135,-0.19043187389338706,0.06594241934060643,-0.005264066981144164,0.028991304658073633,0.0852032653239129,0.031207272462137267,0.08589003178007465,0.12705346675131984,0.1268814880405175,0.04180691922755371,0.07754660175643144,0.05624316901254715,-0.16055366213858796,-0.05687153327007367,0.08149339502267108,0.0821369474568352,0.10878602325320162,0.0928415517279917,0.021258620918839566,0.21952678196147124,0.08682239862093154
L-A22r - L-A38m,-0.08625666324872087,-0.0038246080413203484,0.018773944654613253,-0.08692901600973431,-0.029415389995848806,-0.1873345260735091,-0.05274953351857803,0.1524945753487318,-0.17992534151370573,-0.03246140840979055,0.10731806677770667,0.04417349558158176,-0.07273186244206156,0.05288186390075772,-0.08491800432313516,-0.04472580915701557,-0.06926791668737868,-0.09774074875058855,0.011649030353969192,-0.03834194545904741,0.05563008599017214,-0.022903864435837976,0.06995843279428565,0.03278709189312068,-0.005334639345299111,-0.01720200959212035,-0.009842161432353336,0.09459404446127637,0.10865743114899074,-0.11747334244594088
L-A22r - R-A22c,-0.06007836402470023,0.056320407454066516,0.0666551710114581,0.015207877261224932,-0.049201518793596744,0.019685818978970537,-0.006029590643562954,-0.028854627810947775,0.07708578246574133,-0.10549015043767215,0.09008490749978082,0.018827382175089613,-0.061271956665529995,0.03603642537539052,0.07114755731914843,0.046205397387583315,0.01815250922760031,0.12371500160973195,0.09258787846089618,-0.05107847334222296,0.03347040940120778,0.0966058605321062,0.0950530910511331,0.11561397272243638,0.04762015139675818,0.03920878995144364,-0.061087812414844386,-0.14538065238150072,0.11424465939952934,0.02290283948562856
L-vId/vIg - R-A10m,-0.06973013527808455,0.09821258164148726,0.06265998972542111,0.051923884427956216,-0.025472431081685898,0.037073836162990204,-0.11088744488561453,-0.17923059766743266,-0.012480730591971467,0.05816923913286431,0.16406781950891597,-0.12388507076756189,0.06629984642932737,0.13467382455219182,0.11673837780205087,0.0001645441426130212,-0.30180143180463015,0.04805394052559578,0.11597277421227162,-0.11350962542858131,0.10283827828394863,0.03254423941076482,-0.06579362037676048,0.031419769538809324,-0.00860043045339125,-0.07920738169107926,0.06552812003973671,-0.05588661566634579,-0.10058076832148888,-0.002219141519512635
L-vId/vIg - L-A11l,-0.09694489403423069,0.11266494755125635,0.08301500450015595,0.03501875517701028,0.06411895074117646,-0.014987137232648329,-0.0638619233065939,0.05245012520915668,0.16651694045967397,0.04941861661519237,-0.027822791743986275,-0.13737739672281893,0.02362134303174173,0.18295699980328572,-0.1028220048784161,-0.06869539384261047,-0.13202717030733147,-0.257303653015636,0.09415699737537028,-0.026599887784488394,0.01773261882836614,0.22203808681808587,-0.03493873556568239,0.0371621922020173,-0.09027011018703307,-0.09572593327745521,-0.04481378909778426,0.019868263902321957,-0.08711967496894073,0.09324703579070158
L-vId/vIg - R-A13,-0.08757086326675556,0.0801273966061764,0.06656620381879255,0.031825354826698724,0.023623848833966184,-0.015367976833412,-0.06749379923499106,0.09533348490569686,0.13226106108677235,0.0499883817657958,-0.06474736008960168,-0.19551198674235237,0.0588299041032299,0.14483133643077406,-0.11757867136796378,0.1553919398331627,-0.09620099719134115,-0.03473599161346205,-0.024198007675157243,-0.09019074009582348,0.1307135006887854,-0.07145991999908788,-0.10778039405614961,-0.1691559465560188,0.10349575060612506,-0.13823451725518046,-0.06643297237524796,0.0014125520030392538,-0.04402255497315217,0.07269516985860407
L-vId/vIg - L-A38m,-0.13893233911061764,0.048355545277468485,0.05429756551099786,-0.04059671588983523,0.04634706481379462,-0.0875497320417897,-0.18945306777349538,0.21340502459510302,-0.03540110797617069,0.09422150504540427,-0.05510521520219977,0.04492775417921631,-0.08733241093394749,-0.03209029433520928,-0.0691657046751216,-0.030238297646204212,-0.19171889571584338,0.04827160150750477,0.04161550099848253,0.1016782901679317,-0.005362389766059041,-0.18699026410088376,-0.04395962406837044,0.10435770425581416,-0.002806505700021847,-0.13881684848515824,0.11845265640902922,-0.06201151313243271,-0.07354715470225963,0.04005301917624275
L-vId/vIg - R-A22c,-0.06970290828026897,0.08422258246839842,0.08896828029521145,0.024797413599083714,-0.06724568739534252,0.037678677700939064,-0.06388741116753065,0.009908211073602884,0.13625308894528232,-0.07185985049293048,0.00046066626112192983,-0.0625296815727306,-0.11126817492353114,-0.04890974763163003,0.051255024900195886,-0.016168407917054976,-0.051643785261441165,-0.018884615296773474,0.02891865324777268,-0.21856650810386608,0.121547003899218,0.10348310493476748,0.047636069396196364,-0.2420908698696277,-0.14826472007046523,-0.07803405252625036,0.15528989924476586,0.16213291071432162,0.04084203037667738,-0.09919822245739973
L-vId/vIg - L-A22r,-0.0858065158444629,0.1141666232614849,0.13797998758199623,0.0912296050137774,-0.06390217424736476,0.04863140644812499,-0.06553240052032802,0.10974577598896584,0.17641129981455989,-0.1696285956013024,0.012145402219022008,0.012271374906401893,-0.006309658225156695,-0.0668270333474004,0.1753848971786794,-0.12711900061461856,-0.09731079273981938,0.12794012879342784,0.07796441971301647,-0.13067676460055805,0.035813745929410785,-0.12550417759590854,0.10004627500785904,-0.09955298061445475,-0.027904316425190964,-0.06794199294317166,-0.001435702785238184,0.01842141758561434,0.12984632620573416,0.198716400821134
R-vId/vIg - R-A10m,-0.06881764708896582,0.10970056129519187,0.015425623908043496,0.07481567863263512,-0.04518731281417553,0.019511104416327883,-0.11096889932552122,-0.17237123180029612,-0.0687593040634344,0.031186564067435682,0.1788494984492927,-0.08513932959680989,0.08555273185315575,0.0819208952674888,0.14744915421670102,0.009032529958403333,-0.10431110076748373,0.21022555241760932,0.044931700994500806,0.04422630264422793,0.02975368981369239,0.06508328259068302,0.03974737243338783,0.25118707519176064,0.06023744456231799,-0.08243097666258263,0.009820917213802127,-0.06973639710418847,-0.11060176453819458,-0.25814590865598425
R-vId/vIg - L-A11l,-0.10089986710795812,0.16361489606961013,0.07590763327629582,0.08938988799248114,0.046343344434558204,-0.06930992826831989,-0.040253411637270045,0.061100899669301614,0.12798558831653814,0.03153374327099835,-0.03907987924674132,-0.13931982345167285,0.06428875594119475,0.1728105644597791,-0.05843079483359146,-0.06471717934276067,0.07948989793563248,-0.20692169095692525,0.031502897876761464,0.05476624537646981,-0.09099159971388103,0.1535434160311239,0.1379533486431553,0.05015954019352996,-0.027113473178245223,0.010066470987299318,-0.12777906916590795,0.09880317465320773,-0.06107746300261169,-0.16453598273591513
R-vId/vIg - R-A13,-0.08533447318711729,0.11418766709194046,0.055459174151783794,0.032276504040721445,-0.033741754278385286,-0.009751761536148307,-0.031051387330358345,0.08503623272306196,0.0636059396140947,0.05583154561668996,-0.08898613761214322,-0.22509565034681,0.03480110291239975,0.18000469222100915,-0.06820882721154797,0.19432253395269872,0.17067238429585183,0.02525553016580271,0.004807415632001058,-0.0318248163839332,0.009965092654134651,-0.13964355464473727,-0.020129989895070408,-0.0509866776687184,0.2069487100118215,-0.13572782037416187,-0.06728200994082587,0.15916431528176533,-0.048130912603539064,-0.09139007313152571
R-vId/vIg - L-A38m,-0.14026967590987005,0.06210876987755634,0.06319943392192796,-0.07379223162030789,0.03069567307208463,-0.07580984612496278,-0.14580839203409993,0.21603373613267485,-0.13068445699658446,0.12378246802372847,-0.14631930532469462,-0.021036211283506565,-0.130403103609431,0.018312263697784346,-0.06608601593286291,-0.04934202516150036,0.007752706623324043,0.04116839020970852,0.08974273041584593,0.004219566162250606,-0.19477883825139874,-0.03581273842300149,-0.006590401521077996,0.18781474493751105,0.05674117035289122,-0.04303288733934121,0.15212647253557723,-0.028511082257350398,-0.03541671360409787,-0.0729154211562926
R-vId/vIg - R-A22c,-0.06258554700462707,0.10531427632822649,0.12609518227649366,0.017947884774187704,-0.07762883938666515,0.03288229908300344,-0.01669050745321302,-0.0196877595346659,0.06322404723977977,-0.03924286973900627,-0.0180388411337832,-0.07581287830386797,-0.04430593467125317,-0.0014000217488766478,0.05866562779144957,0.004714862068024336,0.12013100719911304,0.03882780627501587,-0.03805584759396666,-0.2278820022910069,-0.054651296579778325,0.10929502108440058,0.0643070238471592,-0.10344165050717304,-0.17900281112048033,0.03819244723544398,0.003041053476463395,0.08321842762899573,0.01566454033860409,-0.10158585781030904
R-vId/vIg - L-A22r,-0.07868634898399608,0.12858491208996564,0.1226707326367588,0.03835888560409863,-0.07393437018080481,0.06222832072570919,-0.04661960950579722,0.04358162895973842,0.07759681495308399,-0.15996340674481907,-0.028046572981005134,-0.020803117225009837,0.007285202949474941,0.01194608956386891,0.1916701313627863,-0.13862916063234382,0.04068402400779643,0.18150803969983761,0.040916888254643756,-0.2041060418385222,-0.11269601509116339,-0.0065325942675289045,0.11862664222721303,0.11573014087125637,0.06973131178534948,-0.018386850743729345,-0.08325583752623186,0.007327062565923692,0.15494559233617866,0.09138624138915118
R-vId/vIg - L-vId/vIg,-0.041075902060966514,0.022591183864635298,0.06291320015885603,0.03064786593245208,-0.028692721057539568,0.016090139070584857,0.006903826719594906,-0.041567148409537784,0.01576290425689049,0.009096685426928229,-0.02525000901917289,-0.07329085036626462,0.023991209871915446,-0.009282205772992484,-0.018420449736751887,-0.023635571851151442,-0.09709474155115298,-0.0554970050023941,0.07895848223085145,-0.21640698441309494,-0.01636801894714709,0.035043867448860254,0.0041273495994190446,-0.18642856453762402,-0.010818518486751942,-0.0006955489344071773,0.028934682154138122,-0.1266335704536135,0.03281703227452862,0.0553646621949936
R-V5/MT+ - R-A10m,-0.09783051991751542,0.10494095259810848,0.17067276100584794,-0.02147302024410689,-0.23281758413624729,0.01924686623255004,0.05609695329376392,-0.16526781173026336,-0.07446205289646587,0.05066035170024485,-0.0904181381727067,0.10986946041825511,0.06567619103887443,-0.09803734552114926,-0.047763174147583264,0.1454386863208389,-0.1052978651570585,0.0638991818773273,-0.06894437546177812,0.08689413552771882,0.20572169569062396,0.0372774067189276,0.007369680530197865,0.1893078426269564,-0.15730368161519712,-0.049311202952295116,-0.046797279677978074,0.07497799956960959,-0.11027935241945082,-0.06606520036698894
R-V5/MT+ - L-A11l,-0.09448157534969544,0.10156562864878173,0.0880166559993074,0.07989804911697762,-0.09811073424183214,-0.09700381750639948,0.15638535407663368,-0.03306351349544578,0.1601290964046995,0.16196492822362113,0.048018457707357916,0.1385206497548087,0.09176605610064428,-0.13335723421780266,-0.10457045013718676,-0.06153229941084298,-0.018865407754993124,-0.16212283956855678,0.09601577035142024,0.1515049467598434,-0.061039416257977104,-0.06270050943008412,-0.08989016979729839,0.08750714331027085,0.1538216386784596,0.005343385061550885,0.01713669525621117,-0.08252711617626987,0.10264400208584717,-0.07627038834700915
R-V5/MT+ - R-A13,-0.10918014391533172,0.024899306197767486,0.12852779455949764,0.06770452852252329,-0.1092863382791336,-0.05518675713901361,0.27079330120481904,0.0645096121964135,0.01835557720650191,-0.032841196492037164,-0.11992536789440666,-0.03979451022863864,0.07167741817203639,-0.02697704467975406,-0.13902136258698522,0.1630712649973054,-0.01390099399649497,-0.02872348763940727,0.09158712401413784,0.019845229832247957,0.04051502534082574,-0.13200022971233333,-0.1525861308822391,0.04527762278955202,0.04785782024941532,-0.03686637387672358,0.05376509275691006,-0.01793490284962975,0.029230487782325173,0.036871626739620134
R-V5/MT+ - L-A38m,-0.09647619064256789,-0.06099350006306274,0.15002484320733772,-0.13061457588905906,-0.1419497667860934,-0.10036233299449315,0.10299242038357441,0.0880852441894457,-0.1717493406236664,0.18107424251017976,0.042877383472808735,-0.07346037252053704,-0.05433440073004839,0.02526591166076834,-0.010967615291695897,-0.022946219417844037,-0.07308094224146318,-0.08594499412102494,0.05343341278846819,-0.04579916551335437,0.07050596835810177,-0.04369451140251705,0.12263917797051085,0.010664457514082942,-0.14707171571189168,0.11652343012019445,-0.01669649920210746,0.03565349742067108,0.1458986608992779,0.09888909769812584
R-V5/MT+ - R-A22c,-0.06937988721088634,0.03360097421705749,0.10611303543402135,-0.014641330200057251,-0.10462301183391502,0.08604589923652177,0.09281389970367157,-0.034679833302952774,0.08050819933768323,0.009016230618334876,-0.06669664022127797,0.13932041647814433,0.0082141458973619,-0.12235423424284632,-0.10360439674728701,0.14940647373063606,0.060737396398843596,-0.0865870304959625,-0.12270922960271366,-0.02306213724268109,0.004272238871992334,0.07598338871849528,0.05279903426793453,0.22113883314760127,0.031438058456681066,0.09991908235115118,0.06547440111213775,-0.10891759490974098,-0.11389499156201285,0.031491299595589106
R-V5/MT+ - L-A22r,-0.06604654560875245,0.020788630256032704,0.09457888771252272,-0.07580542867500882,-0.13439251546232944,0.07104819474080379,0.1623488273820921,0.032751920999540794,0.0067489048385213956,-0.009157806672348043,-0.03157710391972434,0.012624693084344756,0.015754791537877084,0.09348780929416,-0.052881518135038635,0.0005085508719537418,-0.11169387787810155,-0.03850568127438861,-0.16086142705585416,-0.09345899801273536,0.06681350756801702,0.08315282607073045,0.04756456522161156,0.16797147197553536,-0.06760628723590309,-0.04984821341916202,-0.0931903882573884,-0.15033478150865523,-0.02281067547346291,-0.04812483930768546
R-V5/MT+ - L-vId/vIg,-0.10260656254998018,0.09282363280744443,0.14881810192901607,0.021328248675950404,-0.10067151940694924,0.09004471225266165,0.05787161689039627,0.040693976501933446,0.1196990900849613,-0.012694007212982333,-0.12746771128127088,0.10732807827576793,-0.0275866470988627,-0.1788033480320433,-0.07746798518557649,-0.029340113415094196,0.015797516964210313,0.05290893839688371,-0.2248994303960398,-0.04946433898547302,0.09539815604010238,-0.052158309816866075,-0.021741945601955883,-0.17100146338080824,0.11105455365441677,-0.0038509410968121938,0.09859900769367178,-0.0022870614841797765,-0.03589131261269428,-0.14279365042500758
R-V5/MT+ - R-vId/vIg,-0.09128783134385249,0.06309322529738953,0.1981239250085771,0.011368683966976446,-0.08250735153246452,0.07430083807672822,0.0884234195449273,0.038342789929458866,0.10245855628848029,0.01990115332961795,-0.1688783375943327,0.0842707306554738,0.014537739245661915,-0.12773631879884723,-0.0759233259445524,0.03753834643508064,0.07546289511457129,-0.013366915226698785,-0.26773003678602697,-0.11541010016761605,-0.021629824760946156,0.02491163084445447,-0.04922635452420609,0.01334502327298585,-0.01838885062600063,0.11424770775873874,0.03791415247677104,-0.04647171332782039,-0.10610600072649573,0.018233427126502638
L-mAmyg - R-A10m,-0.12505037669464852,0.013377993052720142,-0.15729268378034397,-0.002173724617406434,-0.16953726905123703,0.04071548662795126,-0.049039095728053296,-0.2392376662713988,-0.07733589917845429,-0.08966092535295735,-0.03688181117768263,-0.07259214838221484,-0.04391118344994861,-0.07438417985700979,-0.1625955308994974,-0.031967096230451554,-0.027206172348984137,-0.10069268872164128,0.1000447206429009,-0.1076157836980268,-0.036615796607769216,-0.06668134085061894,0.05702274402750783,-0.007759518626834818,0.21928328205920877,0.026578940358910952,0.029850359393839537,-0.1302245393434252,0.0040711645018617695,-0.03411101358484643
L-mAmyg - L-A11l,-0.1281520915314443,0.005426744572870815,-0.2536489277279497,0.07467367343410801,-0.0833522610218032,-0.0673587557709345,0.09855396349325676,-0.13113956624024697,0.16098783962619861,0.12888404714551263,0.03798783593468749,-0.15031621861991312,-0.13654000764529708,-0.13743959128093286,-0.02582850759127648,-0.012567057167822124,-0.012016609486349042,-0.04287329391578579,-0.0018722359565497525,-0.039171901864626754,0.061072516660802205,-0.023674976934673193,0.030789570596735375,0.025786454261881586,0.02462071405691059,0.022116372378510187,0.08559500665331717,0.04963783521001786,0.08619678514188382,-0.14936490128980834
L-mAmyg - R-A13,-0.11654646967985503,-0.07821579185630206,-0.2214979089344866,0.06479869426157472,-0.05159304874969486,-0.013812456926738562,0.161139437053681,0.002489598388117198,-0.05266390526533481,-0.10302926729926633,-0.1128967167921616,-0.21483153981029865,-0.0417657037011279,-0.030585778919615714,-0.024156049970941618,-0.028222838987985707,-0.017117828646315725,-0.007779371926320111,0.09519348009301325,0.05043676942946446,0.16757882661396223,0.13520519180102136,0.10131073497355428,0.14206394626906868,0.011008735761300764,-0.04268019735337972,-0.007162042909707726,0.10676520615559565,0.02681494783972596,0.06023823341297757
L-mAmyg - L-A38m,-0.05637015560791871,-0.1110709779528456,-0.05044276912205345,0.0043848139917078465,-0.10366969488659718,-0.14233414115954027,-0.046071178618931626,0.014335112185716148,0.0396266881892835,0.0004688523207658068,-0.06492632869596036,-0.11520001017475816,-0.06625990803506043,-0.08292864148181336,0.1654444681152658,-0.06395981793242585,0.08275717167371571,-0.09440837409392572,-0.13285447830535502,0.011223943743316785,0.17263741486134487,-0.021613937151458838,-0.19446851730754544,0.21718465909401224,-0.00832392894478004,0.006198620315349623,0.116446839957591,0.18256794584840885,-0.04413695758618785,0.03214341885235694
L-mAmyg - R-A22c,-0.13838071881785313,-0.07018309621398645,-0.14544725618961943,-0.07509210654789408,-0.1015236394903633,0.13304828740075805,0.0044525063132151155,-0.021194547909547105,0.09589525724848308,-0.004066740757503878,0.1822601994490183,-0.05715694615721265,-0.23744899519406096,0.009646894660362337,-0.11502384749767704,0.04325531628161942,0.029556588543934795,-0.01830669265935262,-0.05273794297463318,-0.048154111942312464,0.010403344532328322,0.04306219537749479,0.015107079191445483,0.052697430270698564,0.0055655032680308435,-0.05274955492763666,-0.1330484539077624,0.09535272913545394,-0.1187412542309365,0.12040041708837612
L-mAmyg - L-A22r,-0.10359126139414518,-0.10372852018818772,-0.10600451936968647,-0.019705894754761224,-0.1670450022315823,0.029483750694725,0.004928706577647025,0.008996951759375212,0.018299966571537984,-0.2422094022183208,0.1683846348438892,-0.04358501089722731,-0.05276529730945709,-0.0534618476078108,-0.08376549987376708,-0.20660424440604516,-0.09279407415203494,-0.022408884028714195,-0.06230705278199451,-0.07645083675594053,-0.15979074457320494,-0.09135003261299546,-0.09428897651816723,0.06094853997998819,0.1237479393955811,-0.13747455572213024,0.062077396613205646,0.14837817446493998,-0.16548144459724612,0.055690004202231684
L-mAmyg - L-vId/vIg,-0.11379199797062513,-0.02507113728310473,-0.16593875561263308,-0.0388651198323549,-0.05096620773976293,0.11271439142451047,-0.10675494265975194,0.030851266965352286,0.0806008715790969,0.055554204026294206,0.0022468329532913736,-0.043836738567953906,-0.07723987108358604,-0.16595274451108333,-0.235489821564921,-0.04920570879633919,-0.10028378497528943,0.10899497493156118,0.05138478576753739,0.14849102399868241,0.13263509775530194,-0.135089575416472,0.05536807545815522,-0.08339549128536507,-0.0357714154697048,0.14916903629896605,-0.3425111134769157,-0.06201084178031253,0.1780283579998525,-0.09095970564963496
L-mAmyg - R-vId/vIg,-0.13250246019838324,-0.050888806648025336,-0.13767520947363895,-0.024801915738561758,-0.09464726917446728,0.1696790934250303,-0.08743890094821867,-0.014983120709373028,0.007433401964662106,0.045316531152046646,-0.0866753614131379,-0.18684422420389118,-0.06662156693460547,-0.03085906608374126,-0.13156499938581864,-0.10155822705104957,0.061438208476726375,0.04366657170523989,0.08718105723330817,-0.07085799539867427,-0.0629515109333074,-0.03579775527009795,0.09722699416824632,0.043729519739059516,0.09075804112630537,0.23510376165141686,-0.24516208370890444,-0.001220444219208753,0.023431718333650084,0.06191915313511771
L-mAmyg - R-V5/MT+,-0.11370349140548815,-0.09714650895355678,0.03518650214038122,-0.08856706220128888,-0.15475356108407068,0.0775362803108811,0.1534905908093363,-0.03380802610282896,0.0045078273815347125,0.044813342371250994,0.0796152184235758,-0.16523741105377432,-0.13050546454160045,0.05742642606766204,-0.011835629530644973,-0.21002797426636965,-0.007007427999062718,0.1098944721423284,-0.02649043525485839,0.11164578878287645,-0.1119285176845414,0.013007428057870068,-0.16934239492794362,-0.07527272376580098,-0.06041974118986681,-0.022378926761721346,0.024104542863309736,0.11460314085249962,0.06678854966797496,0.13613234916668296
R-mAmyg - R-A10m,-0.11028351681097091,-0.003254683332000957,-0.17848406079737064,-0.04181026740054599,-0.12785376883489957,0.004825198600876449,-0.11279760835164857,-0.20808565831081371,-0.02822901161229298,-0.0604789972851196,-0.15284343203768308,0.21160317939165837,0.061104182510877965,0.1892440121713734,0.07750237783021396,0.08825414729568692,-0.0006111604517050617,-0.07492187593527014,0.04185273005382155,-0.03582852099676199,-0.013691898030872906,-0.12654644622221595,0.10437597556358053,0.004517092902696959,0.03260334650068778,-0.06254560993915996,0.13639099066331115,-0.0026516468911008187,0.025875243462140908,0.06774904166314297
R-mAmyg - L-A11l,-0.10515261504520859,0.006072294648240159,-0.213001236113517,0.09156225528343948,-0.0007444894527424426,-0.050615607088402,0.1036782382498652,-0.05383224403752049,0.12917551091419008,0.17844597754434288,-0.09680227797194964,0.1410483575070291,-0.012663982220837422,-0.016530914106895934,0.12950217389906907,0.008897255996162009,-0.012872531375154159,-0.109806503469859,-0.027282048204047223,-0.00021931871796402116,-0.02724958907076557,-0.05398666055144603,0.22195040600323399,-0.0270120875668263,-0.01940866099602507,-0.003134831196557532,-0.02470453074184055,0.10466448530320267,-0.07507192861190148,0.003559985739483476
R-mAmyg - R-A13,-0.10937393945260265,-0.05743660474013403,-0.16227730469728838,0.092209217984083,0.015250235154305344,-0.0016890401541617547,0.17052318947203476,0.08244229786677254,-0.03383815741732853,-0.11026732271858973,-0.2095975041851772,0.07339452910271949,0.017583936824016447,0.10274688661730699,0.13750672917640058,0.08137294746357832,-0.09632210765053884,0.03455028353686675,0.020291851245734557,0.06273656504205219,0.0923520797305698,0.03249352473154756,0.20533865866972617,-0.016489609279352294,0.008446944661820846,-0.14133850012747673,0.034167118932137655,0.12052171442729703,-0.13832547502975134,0.06173586561258265
R-mAmyg - L-A38m,-0.06521389496120958,-0.10138875492042705,-0.05470784924856136,-0.011283342966273908,-0.05612650117024243,-0.13642455780260693,-0.03298482423235752,0.06696474112970975,0.018699137629902683,0.022869373760798936,-0.103908628638842,-0.02347339883178197,-0.0563310775060284,0.039055065364267366,0.2902446746417539,-0.12550438356255283,0.05210001633690747,-0.17202409247439318,-0.10581090274197817,0.011985166074717755,0.20333665794087555,-0.010903836271981847,-0.1349716119525433,0.018259560818499762,0.029359122417522598,0.16358517795691815,-0.11180509437355551,-0.08486375865737897,-0.12129774261827136,0.09807766993480402
R-mAmyg - R-A22c,-0.13290768874765715,-0.021096265813476373,-0.15616709444976376,-0.057260064383406674,-0.09021304929013381,0.12577635956814068,-0.018568067934569436,0.023180174059243615,0.12339771452044691,0.03902023824419967,0.03174678143701731,0.2386784178111353,-0.1591760172607827,0.13766186608588443,0.1136006155540828,0.2016652624894067,0.008725164302388448,0.04501550286490072,0.032770867837125,-0.019131968699604138,-0.03805338054578322,0.08872744941386167,-0.13849342289280805,-0.016615105464484848,-0.011210778666876461,-0.07279849950316226,0.022676540272670603,-0.06925813013716263,-0.09798835534604272,0.05569896537791064
R-mAmyg - L-A22r,-0.10561617563057621,-0.08968010773807283,-0.1098099209571018,-0.03127657767340947,-0.14288658924289727,0.00940324405238735,-0.012840426355729916,0.0963640206011548,0.05202290770601235,-0.10785991620555112,0.04478722992970621,0.19779619027202217,0.10269343077045907,0.20884330155874942,0.07716607682932512,-0.06634843966268433,-0.09483962581815106,-0.03093054930129504,0.007149612814052651,-0.02148433780960568,-0.02771755110045967,-0.08772980505173535,-0.15205390443553135,0.009850584222511788,0.07186296678391235,0.021950259391877197,0.06993044391520409,0.026946361344995933,-0.10544737952300975,-0.0851607388234039
R-mAmyg - L-vId/vIg,-0.12080990541557987,-0.03987555921945034,-0.11945236888304044,-0.0356542968883823,-0.03439032567486608,0.06069554267685631,-0.12127425468084406,0.1308800218947598,0.15088626685791015,0.07375066792673088,-0.06275734059842844,0.20276584601212438,0.021747392669821664,0.0848036298027504,-0.047929535066373985,0.09424986323110016,-0.12412396278158701,0.13037536724208457,0.048908987416733885,0.023831414886025748,0.12551104959401038,-0.005751019991171102,0.010704461315225705,-0.11587721856581862,-0.10251788037910842,-0.026595803143437857,-0.08516463928803544,0.0032671038578617716,0.1830363535689515,-0.1368983854752567
R-mAmyg - R-vId/vIg,-0.14039934090337194,-0.05534798320671274,-0.11531213396535675,-0.01751388785742415,-0.06486544963716338,0.1138384491987234,-0.06973618510213782,0.0976464751618932,0.0683042408759482,0.05653160374033328,-0.14918438368860987,0.1703186789788521,0.054991986944012236,0.2107032727428668,0.042660083488843495,0.07687422933425798,0.10769348659498837,0.0833520059624061,0.07850349798581749,-0.11399491066950142,-0.12330595287529109,-0.008398913034007444,0.03298307018078009,0.02629189856043261,-0.0734452529820506,0.11657849789149756,0.02775771674205558,0.04898026331406308,0.03072255160913559,-0.09543398206655224
R-mAmyg - R-V5/MT+,-0.10714030905440522,-0.09250695113816615,0.04388690392863622,-0.06943983260680608,-0.131710398721231,0.08167928217175979,0.17405043010894636,-0.011270603886236564,-0.002152530424456768,0.14969212877234056,-0.0011547470073568072,0.08747077410606058,0.0014549343318979663,0.21354570065801412,0.07857839798671512,-0.06777522934233439,-0.040472122679052425,0.04162575414918334,0.11098716311138315,0.135430810249619,-0.08319074351991998,0.032618083924603525,-0.25861095499105774,-0.1917327247087367,-0.1310749076857955,0.12005439641275417,0.0016989217519851538,-0.040788548492026705,0.07551221623627642,-0.027645345495482372
R-mAmyg - L-mAmyg,-0.06191243481285113,-0.0370514895730598,-0.02048639311936618,-0.013481465589462236,-0.011141062696075097,-0.05278234837161009,-0.020041356010081172,0.0465243405346073,0.05896002524802749,-0.19176443134169247,-0.02160471951914006,-0.11743104494791484,-0.04001823483991965,0.0006649390077716338,0.053541311939535124,-0.00671193808963879,0.015922798356741173,0.018067338870209806,0.020698005567375253,0.10829122097550631,0.02285777296259881,0.09162445431247451,-0.09628164246884041,0.03261933785433141,-0.15401769426303197,0.06494184680829043,0.14964902783524614,-0.09994103523759333,0.09278003345871162,-0.11301933659055952
L-lAmyg - R-A10m,-0.09538239730766561,-0.06953768917836854,0.13485787876494712,0.1906428951475234,0.04414344249005648,0.053245004333891205,-0.05715220047521091,-0.21324201074900395,-0.10268791314354228,-0.10247977553841436,-0.07802782647800185,0.06868712381973015,-0.0890845376997108,-0.030796561375695267,0.03819427303589833,0.07597643961210089,-0.07749999174651101,-0.16346931103960372,0.11418469921341105,0.05739776165084651,-0.0009043643149318839,0.03886085137274056,-0.15685682549949104,-0.021935424849027628,0.018124816732654623,0.1223845107709835,-0.1125576204978664,-0.011886148892209177,0.015339296687620088,0.0669891479005472
L-lAmyg - L-A11l,-0.09762801532589667,-0.0913018169361839,0.03668602463668108,0.2562867423968968,0.11361687454191319,0.002191048137428219,0.06144835353293318,-0.0787766446064847,-0.0217056603126109,0.12588321592908444,0.05753969493047016,0.025542607304015055,-0.04478536658094215,-0.13855936124353463,0.0885223273014316,-0.02560236091471243,-0.10486021549308197,-0.026875473587432613,0.21029853312210822,-0.017961633747949127,-0.026913539073411114,-0.007813085638284194,0.06526765369175826,-0.12941479405377698,0.022771117328603117,-0.02808261624190382,0.10041352976127718,0.07435052114019117,-0.06264532092103833,-0.03003810227901734
L-lAmyg - R-A13,-0.1150296192020169,-0.15504320736674052,0.03339887158045359,0.24678439891403953,0.10164843463597432,0.0011936667503236829,0.10795826516835777,0.04180737831112931,-0.13638780988710092,-0.015639253776975212,-0.056025078523381004,-0.02649334456908553,0.018243005065635302,-0.031023043060667783,-0.07082859602797019,0.10708399889911759,-0.053168309002421935,0.06923370410675432,0.1767017998766232,-0.030422867999285504,-0.07654995830882778,-0.017327830183624146,0.01709810848857224,-0.08706521015154296,-0.12733762841624444,0.05820963585595097,-0.028231178613203227,0.033954743259284374,-0.1662578318397926,0.009412705857120021
L-lAmyg - L-A38m,-0.06690617447468479,-0.15759456186705212,0.05350804237859727,0.10939051968204619,-0.05222360762599951,-0.10039220640975037,-0.13094233232582356,0.041083975005425634,-0.020963585901273066,0.10278103605169349,0.08488348929458069,-0.00344039425886623,0.09832297305903769,-0.0011745663792448058,-0.08116194554579238,0.022325929789521512,-0.027774840258338384,-0.031244458941151684,0.06302581127420848,-0.11173716410506646,0.1948669503939739,-0.12903800131964244,0.14129439164494106,0.04972511918124686,0.015248454651809011,0.33521612313862076,0.22486009370646395,0.08206930118831543,-0.0979493867965057,-0.026423367811605966
L-lAmyg - R-A22c,-0.11045344386733458,-0.145808107756037,0.09853693253794846,0.1696047810716869,0.1546839489950598,0.1751801116711971,0.02057835777309292,-0.039217646834041754,-0.05508064237736972,-0.03533252242020522,0.12810236164008681,0.06092736517260679,-0.23813278904679314,0.07670197900341495,0.02580568993953567,0.1409958978833299,-0.025727117135049132,-0.09964104398228411,-0.09769672305994684,-0.02849079997826469,-0.01737347504260451,-0.017713565472821557,-0.03624918703687094,0.07439477029864006,0.0060960208486616554,0.011062124087691468,-0.02856993671728651,-0.02326462691205636,0.029838231165879456,0.10624481559543954
L-lAmyg - L-A22r,-0.09512911893250478,-0.18206068374391426,0.0702153391684283,0.15347073879342635,0.07585141538552816,0.07697347677372968,0.00963915123165627,0.011793204991995206,-0.0779361996870878,-0.14826118904593044,0.13077532449306853,0.004176101339623144,0.03134854298645118,0.1424478848643043,0.015123891528809025,-0.03475712306011229,-0.12682643051805165,-0.13366804832525742,-0.19868571768343934,-0.1450327417888734,0.0012594738248241574,-0.11894943479586767,-0.03621906190921596,0.15447473728571712,-0.03399368868969681,0.009605252400418762,-0.09671456256007127,-0.1296706558782747,0.08607350868670816,-0.08102604353897183
L-lAmyg - L-vId/vIg,-0.11906927196580792,-0.05154005356004668,0.08361769303204096,0.2017605672046833,0.19633564813730195,0.11581717895950269,-0.05386190430840232,0.006494408869285411,-0.014101295272229447,-0.06863104705881963,-0.043141745539227457,0.05876788361150751,-0.10589730645812011,-0.08001768022108255,0.030738811261133602,-0.009138288925729175,-0.02126729567947999,0.03926407692784236,-0.14721680944141613,0.2189808185863109,0.013640712691163837,-0.14911675899741297,-0.06189681203167031,-0.009090351717804056,-0.03589013177810113,-0.013755062450826208,-0.09664022601493001,0.12519427501256766,0.1390919778664236,-0.3364534507783029
L-lAmyg - R-vId/vIg,-0.12315357504967844,-0.09732452725555318,0.11490888792976119,0.20129998837340657,0.18529374531924198,0.1991612541832457,-0.02849351076220276,-0.045222665218057345,-0.0797731801797724,0.019896084699918992,-0.10522068290731709,-0.008441956457568688,-0.11198970305494307,0.03967647130481566,0.008401765039950217,-0.05481082670832417,-0.004737197721028187,-0.07826344368401215,-0.0518727160931766,-0.011571915541764743,-0.1468590420575317,-0.06790286798383469,-0.10222905900779236,0.04099545523904431,0.020307049148242537,0.013365238487705848,0.02673999701891789,0.2047230221121683,0.054633222664287134,-0.045418774437211484
L-lAmyg - R-V5/MT+,-0.09454249087227137,-0.13323133802271045,0.08323141173128373,0.014773880444083915,0.029214001498077215,0.09961536342876479,0.08848827784284885,-0.018639027370963103,-0.11962966766161993,0.11000875880418416,0.06189041638335586,-0.1392694699372967,-0.039837521640961694,0.14791956132037634,0.07483809346381946,-0.01395149895034263,0.026476448113918947,0.010696261378029313,-0.25079166582288936,-0.0893645049887267,-0.01365239212862572,-0.07636278316765686,0.12914738526003336,-0.005825712535960009,0.11871303774661991,0.01927056644002484,0.1026786921763844,-0.21295655989255208,0.21696998222136354,0.029398015370152478
L-lAmyg - L-mAmyg,-0.05713831050171138,-0.1840525203268796,0.031730254020343684,0.12368827854152507,-0.07001272481047294,-0.07507584152123309,-0.08348077226912837,-0.04117416270542407,0.03462642647708809,0.07544585112226557,0.03196641303396443,0.03542107877791223,0.060317743594650815,0.08419567888162079,-0.19418096750562902,-0.14111421958216547,0.20744801976453203,0.2618321575355495,0.0056932842811520355,0.061973595118880426,-0.04826242037786268,0.163867700667801,-0.19290539145065477,0.0996299234682948,-0.10140977655325707,-0.24783607648305062,0.013159451401517912,0.06580095944003082,0.02363587546742435,0.009252165555932834
L-lAmyg - R-mAmyg,-0.07257875787234892,-0.15684091979967338,0.05515890651286976,0.14074547037513999,-0.09490631507489741,-0.13836879757689677,-0.0902198755801108,-0.007367376356796832,-0.01887623727368793,0.0838589468289333,0.029590736286259668,0.0778671275275786,0.08152771386239821,0.103717826335258,-0.11851484283200298,-0.12438052511040679,0.17943529923552903,0.18358377006100335,-0.03359050212567531,-0.04039779405691724,0.0683285704020318,0.2095985095953457,-0.13934256728687475,-0.07718997898931435,0.014720854317604391,-0.014854854913345539,-0.1947319696255195,-0.16743798738310184,-0.048256788916876445,0.0774498494669891
R-lAmyg - R-A10m,-0.11071182097110102,0.017367183193660502,0.06558993693834571,-0.20622205493137907,0.1303344527458229,-0.09848189786642925,0.03676359852824407,-0.29452005373993734,-0.0662522374753754,-0.11910193102559524,-0.1607416104227155,0.0065563619880337175,-0.05419659720263646,0.01940857698020105,-0.030479026216444906,-0.02579886845993033,-0.040838780447928096,-0.12335501534111064,0.11086231005700206,-0.06872132062077341,0.05411468127182184,0.03268552549238435,-0.1147918287323236,-0.03957610955652617,-0.06885659668399335,-0.04860723917822597,0.012424591067937606,-0.0633898135090123,0.09203298892061793,0.024892071446879528
R-lAmyg - L-A11l,-0.08586747558692222,0.016322371289024678,-0.04381232767795072,-0.05885449928911902,0.21298868260761228,-0.10920874943864486,0.14951524390078214,-0.18545261579412417,0.17835331113652467,0.13322647450303535,0.03819157445249402,0.07876466768775223,-0.03422651807285146,-0.06933042477642443,0.064784040473297,-0.09933754145965235,-0.010891065000289683,0.0873672291256606,0.11107555385735428,-0.13543168591319138,-0.05203711698317391,0.05851753078947841,-0.10094420352646233,0.053128468023316285,0.143996293695204,-0.06908634780216799,0.006178706047547111,0.07761138732734793,0.13319698346724135,-0.050870548008174005
R-lAmyg - R-A13,-0.1129267150399445,-0.05795233317226069,-0.009486912457984975,-0.08079206163355385,0.21617239088759457,-0.11494269123321779,0.17169511381529684,-0.035519985059973495,0.0011151642190370542,-0.10060104866637015,-0.07272023040741261,-0.011413643082082432,0.06060772319959963,0.0029980516508469647,-0.15868808785991004,0.10406679856581484,-0.08147494234208258,0.24072690632250882,0.06748967227734465,-0.07798070874561171,-0.011286017541495413,0.08252356504181155,0.013338178233412074,0.016479479579296717,-0.05295851836313209,0.04884915278294018,-0.061045818223408224,-0.018780356974501207,-0.050535757160034694,0.020533087223631112
R-lAmyg - L-A38m,-0.053335947591746674,-0.09719735573498241,0.04667312880155898,-0.157620293066881,0.06396131998887572,-0.20851577921520423,-0.04270023758098511,-0.0401141045395413,0.004283919914670434,0.07119198172607806,0.10082748511002379,0.016691269677543176,0.06509610110209404,0.00573114838068532,0.059080119897428576,0.08316815857392298,0.017311957739310102,0.12959904262136646,0.04865552149933121,-0.12331104103780854,0.07553691826379327,-0.11395767593982754,-0.10342610212013315,0.06390550376365393,-0.05084355276063471,0.20258807205057233,-0.12720239964495245,0.20547976780144467,-0.1690053217847668,-0.05960235699052547
R-lAmyg - R-A22c,-0.1030065889920599,-0.040346748576431724,0.02058860777008371,-0.2300375005926168,0.19407858792882055,0.08979310694493181,0.04731943390837954,-0.09204494434115296,0.10928872015151105,-0.06541855289866606,0.0714597645557675,0.06160697812700821,-0.1272420726186928,-0.019102279407091846,0.03255766115391483,0.010132847137518504,0.10261238273900915,0.04719572505587347,0.05869484879066069,0.04006355538146267,0.1732365303054612,0.12412141881042957,0.034817304004707963,0.09003666738756265,0.08769670904512984,-0.0005371277259674234,0.0436389805943541,-0.02977840692979636,-0.038515372675498996,0.02975295551995283
R-lAmyg - L-A22r,-0.08985560577209645,-0.10797029341106444,0.05956949131503529,-0.20347874107442077,0.11106187683507329,-0.03389096609234138,0.09334292086300358,0.030730130432507483,0.06438144714417635,-0.200791186341692,0.08989607633077225,0.033773406675100426,0.05200084430845578,0.06059130993997294,-0.09197008809541081,-0.1690695309220993,0.012907605097464529,-0.09609745904314299,0.029258171588872783,-0.14041801000787513,0.12221572118452588,-0.024725605091515813,0.003546530117390298,0.030218987661180072,0.047763432065577614,0.07962648768256485,-0.0034359950603754796,0.002456276995032338,-0.06312223414262622,-0.21535083484076945
R-lAmyg - L-vId/vIg,-0.1225158813276702,5.792759269618343e-05,0.047964139802338025,-0.13253861685916818,0.24092520744132162,0.08523890956602956,-0.06868884199329951,-0.003743454843760201,0.1362386477423865,-0.05701892269495397,-0.15141179819752154,0.03258527258445473,-0.004555695110358908,-0.06520010903222459,0.04810867413329359,-0.16707552560094502,0.01415532574712787,0.05944009653463574,-0.030848289851474323,0.18800446010827077,0.22099884164827874,-0.07262655799057816,0.01930848413160655,-0.03514334937637073,0.049007220203527144,-0.09740605567156815,0.07568008787855224,0.07033172989159525,-0.055261999766820495,0.059552332310720005
R-lAmyg - R-vId/vIg,-0.14275794421613208,-0.006195021278019026,0.10870954251239029,-0.20073071526912345,0.2194576191748857,0.07640002971416777,0.008673084854170794,-0.05811362310644536,0.07889974243207276,-0.01562858763008205,-0.20405776492457312,-0.044714014555268376,0.01857385151346623,0.0308077060633256,0.021985524790333014,-0.1511230065773141,0.12013882539776896,0.049721481702773004,0.025834286219986784,-0.008196960619328472,-0.0425458196425542,0.045410793286687595,0.017458783100548304,0.031430302702972084,-0.011739581276869637,0.0862554290557461,0.03987133908740282,-0.022891857228556356,-0.05582790407533139,0.06504961263821493
R-lAmyg - R-V5/MT+,-0.0797784690747304,-0.09545239224455654,0.09546343188374132,-0.19002266998960027,-0.023711203700468933,0.09221191894329697,0.12949827247453435,-0.03999242530343855,-0.010667544494077079,0.08291571924052174,0.07695029151297386,-0.017011133824270434,0.021753435233371372,0.08217826424465863,0.05240853922533922,-0.14040464570335742,0.07237346880012922,0.05210819236365641,0.02898655639427407,0.09431155344611158,0.04138732992738377,-0.04741979578681709,0.15415891181766303,-0.07535743720651872,0.1422225752185643,0.0010039245529583386,0.04244203561630326,-0.029655323287729088,-0.07699995426695241,-0.1900737612705904
R-lAmyg - L-mAmyg,-0.06463524529082848,-0.1426368063292762,0.005343936650843998,-0.09760145712252684,0.003251568951402788,-0.12011117596243859,-0.07536939306980686,-0.07872409370855209,0.10852476994490344,-0.015790308342643056,0.022294756505943016,-0.10016308872136477,0.04526184848094574,-0.07195045788722454,-0.11948341266865292,0.06556728668157566,-0.10277848499162101,0.07229052187527582,-0.20164836578900883,0.07749867094423962,-0.192838678987626,-0.15833598764365334,-0.0010972963248148532,-0.0031763566592186683,-0.23271990542095902,-0.10628440057449484,0.20071624060204635,0.11236026606772315,-0.023631710827241217,0.19946945341945493
R-lAmyg - R-mAmyg,-0.06736846264797636,-0.12038369124056804,0.009758169120708897,-0.10102471339350028,0.013945376041269426,-0.11232003031984801,-0.03431959699472087,-0.08125959334298971,0.1467914243030322,0.017641752961044546,-0.006850198297348481,-0.049696974213095525,0.12126872464541918,0.005636887484669187,-0.059943065407559955,0.0865623498240157,-0.17208568104196137,-0.01740552837130215,-0.06913981626704176,0.0140606756632169,-0.1171110981636316,-0.02017851352517366,-0.00244349130046001,-0.03911782041077062,-0.09478693369991416,0.18381961797625798,-0.04086526788904693,-0.07352616915126804,0.02010338947216178,0.04652807193483999
R-lAmyg - L-lAmyg,-0.058735429110219756,-0.2418427629405816,0.08578676358960821,0.02187460980439824,0.04272460175448699,-0.029107082591177762,-0.09634912822037787,-0.04658174395809124,0.01539278767694993,0.012480498090389522,0.10157341025468797,0.018621092529304877,0.1293701618764235,0.05047473421597365,-0.05714659853118412,-0.1419654891392177,0.1468353836248349,0.017082381613056495,-0.16121522956878773,0.03504382972496892,0.17095213362385994,-0.0006668668945095241,0.29020127210945384,-0.16083244313883652,-0.08987895163741261,-0.06966697615584902,0.12489781408857414,-0.06328854618527778,-0.021597487891986997,0.044345911768484916
L-rHipp - R-A10m,-0.08794269824242862,0.11383867022363066,-0.0784997923301423,-0.012852756740224108,-0.01596027958584835,-0.006933954268688397,-0.08014513188363179,-0.12630982785653888,-0.19429346787139282,-0.03581541077882086,-0.08288520765793371,0.14081830327835976,0.06385794151748114,-0.00027010716736949707,-0.18391823021524534,-0.06695657530404187,0.042288928500144124,-0.07595493733706185,-0.09028607831679425,-0.11698349284256679,-0.003973256792525477,0.10413926688626546,-0.04794251101632442,-0.1159280022775937,0.0457947573705563,0.06090641462888604,0.08187567839154529,0.19144319412996677,0.13778325778300063,0.09124581728768451
L-rHipp - L-A11l,-0.09443814454844827,0.10429618386724016,-0.1550064129938046,0.07066647342269369,0.09125952593197469,-0.06832344542989836,0.07440952417492412,-0.057805837747098555,-0.00032521038381166587,0.2141748503912311,0.11356715162549513,0.061314933299093585,0.08354309017581532,-0.03589546042209512,0.07173145691940763,-0.037940052396093334,-0.021553672884507213,0.0029999705517612593,-0.22715498522485597,-0.057297104617534365,-0.011185278485941731,0.1383947676060209,-0.005830747496517852,0.0769465918916571,0.016743532879934978,-0.05137974304470087,0.05396567092517481,0.031745675286378054,0.2029773645701113,0.017897165161845932
L-rHipp - R-A13,-0.10548937029414825,0.03258165985948374,-0.12219329053061406,0.06979502995399572,0.09506963717171071,-0.03678293491048439,0.17422071107585635,0.08184886110419083,-0.19174051637945244,-0.07231981561153777,-0.04874887726311648,-0.08045514059009054,0.15918145666863542,0.01661428215737885,-0.008241802705280838,0.04551824936767466,-0.07472909833311077,0.13748001787838388,-0.1361936428535641,-0.003240236869674576,0.08028509356342463,0.17691779500088584,-0.0224423577955327,0.010338030085763224,0.09749469232375337,-0.007094497432870311,0.033103680932299116,-0.036200965362889866,0.0702302756860906,0.04078344018313659
L-rHipp - L-A38m,-0.04353829336356008,-0.043699489806896905,0.017842509339235667,-0.022581558215109505,-0.027163529686286436,-0.19093328666444245,-0.09266875626720947,0.04641414746330565,-0.08379599555116718,0.06842433658578587,-0.052177541750408125,-0.0555243092981311,-0.06188057340419377,-0.07106098163952995,0.21659448704322506,0.0608533480197122,0.09092217992912267,-0.08868842788744363,-0.08836759835745733,-0.020694851113147308,0.0467042303531676,0.07896167311111098,-0.05685555282724737,-0.07796839869849187,0.14355200687221892,-0.0268928074914815,-0.21774424125966937,0.06197831316334357,0.05711568222287884,0.041638879248428975
L-rHipp - R-A22c,-0.12830416894412902,0.06999148136011105,-0.04014397988480347,-0.07189064789496344,0.02190220121075563,0.12584581084250268,-0.026519077585799727,0.06532385644937926,-0.09257218835841935,-0.037556574210813515,0.21420662616297612,0.06243134327946351,-0.035689317332710885,-0.11294933647057798,0.04189443248572339,0.174535591485093,0.044993194153009945,0.0010310294506960804,-0.06601890761088432,0.10301384529725525,0.03180695282624659,0.28706930976354583,-0.014343846234279437,-0.11019752187235307,0.11140304846485534,0.08720758584669325,0.11663043732217618,0.06533568068604803,-0.025654171273840114,0.052374528511616635
L-rHipp - L-A22r,-0.100892323708827,0.01111253561104539,-0.02209717865481001,-0.032262742427324693,-0.05446574946020356,-0.04062708447980665,0.006804657119454924,0.15884942482690903,-0.1291180295333534,-0.1860485740415764,0.1872201469559904,0.1502602527878221,0.14531548171224737,-0.09727809077047327,-0.051747245589444955,-0.04327597485981703,-0.04120536904234022,-0.08093866884341547,0.011679799367555893,-0.0216562744358186,-0.04406214084519588,0.1223546345798347,-0.011069595889592634,-0.14345830248632188,0.08758704848351036,-0.02957226527958337,-0.07759461222913741,0.15785032546924121,0.010952207376759074,-0.09235954267579992
L-rHipp - L-vId/vIg,-0.1339058434158754,0.0732473187766799,-0.018429750047638714,-0.02950628816624755,0.06569935247108151,0.11567787408441861,-0.1898354943538651,0.10730659449973538,-0.019509595632315156,0.06799810538316334,0.0658803671276922,0.023261253017115624,0.18767364219311772,-0.13964871180335142,-0.04410663880289813,-0.008774970822836903,-0.2190720794223988,0.010780673529174792,-0.06545837126508995,0.04038259316435248,0.10894261378043578,0.11552321800393371,-0.13856385945893213,0.026991603178034684,0.14103034185516328,0.040039008477405325,-0.0013375036362303222,0.01583039424215,0.061106927019105445,0.20991324391800512
L-rHipp - R-vId/vIg,-0.14581994450446412,0.09715010956543738,-0.016101774510045224,-0.012440048594304521,0.053633644403636604,0.14555894524056476,-0.12926364224587744,0.09932785830735388,-0.1256914542703074,0.06353151382396084,-0.034063244301022366,-0.035461904573841,0.18692298886521672,-0.06385609227847378,-0.009741561300568628,-0.04037295323656424,0.0329534898142851,0.029965082594719715,-0.028240962606641447,-0.003898270224250454,-0.14608698374957987,0.15662022892334154,0.00402196577500737,0.10817540418658614,0.10220875154214146,0.20435921260402135,0.07197182931315589,0.15350462633021203,-0.047972830992127936,0.05379606180950614
L-rHipp - R-V5/MT+,-0.10141025313798098,-0.025617938592253614,0.15679441577968994,-0.11353317409002547,-0.14920400106659878,0.058861525774727974,0.16982387087308237,0.05090149481300629,-0.141952496168962,0.15252325396058553,0.09330176947757321,-0.024590226102156068,0.08011450337937093,-0.02794437092874899,0.12182773111272405,-0.010903791890123294,-0.0952382806364121,-0.0253304424207339,0.082305057494229,0.1449706971169051,-0.07423671845164756,0.09158598419258258,0.10696016761288318,-0.16715053140961908,0.06511631982017096,-0.059590233282269214,0.044496288811994564,0.1107081858198193,0.038747467126726345,0.00661075680208381
L-rHipp - L-mAmyg,-0.06652371657832218,-0.06783056115820067,-0.04700126236733585,0.030703942536871972,-0.1154053096856218,-0.04205333523045432,-0.08824669416017046,-0.06589990770647919,0.03952358773470528,-0.09927485760497069,-0.04135019833839486,-0.1991504927915852,0.021358780340019354,-0.16889830059436214,0.08632729996781358,0.02407332710424364,-0.003955214526270562,0.026204272007400012,0.026182630078435368,0.12063556918346877,-0.13514739940318926,0.048435008509591135,-0.057146327807243893,-0.11881481429116532,-0.018071211923505887,0.05045506816983772,0.11198936090008373,-0.11814606330586164,-0.06698554993943845,-0.058836134690860145
L-rHipp - R-mAmyg,-0.07057085706640351,-0.06867323864591894,-0.04201670826588342,0.017386412675038414,-0.04329104461653635,-0.04183232964835605,-0.08905279525576254,-0.011869846850894282,0.03843035491177917,-0.10555462987594391,-0.09817253991758125,-0.062007885730064397,0.14717080177989145,0.048274077181858666,0.20061588821839096,-0.005858056257071059,-0.06108237548107063,-0.09152064423775216,-0.04051223916437556,0.12272021180884984,-0.10236505728801233,0.06075725498792022,-0.018882734086525133,-0.12652697718270156,0.011901266816442192,0.07795432883600067,-0.04646542683631516,-0.09715919840742714,-0.034717788833171344,-0.04066324774173218
L-rHipp - L-lAmyg,-0.08011158916677713,-0.19387294794026166,0.08626257945932633,0.14908042357651038,-0.05712935878555264,-0.09841052300395679,-0.10729959053394916,-0.01929171633579046,0.05496707918308919,0.043825416689767374,0.043805595978861266,0.1010102913505017,0.06346544668207749,-0.0827691458486524,-0.030238668879554117,0.0024392855055462327,0.14721384704804877,-0.017484831055754574,0.14269879410634012,0.033650717635160705,0.13100851048680548,0.05717426615769508,0.08220828313105903,-0.04188486227697492,0.12254941431621649,-0.05795333822650753,0.08894927195589598,-0.12263367462791887,0.03193008800869192,0.003996174074572693
L-rHipp - R-lAmyg,-0.06566067235528064,-0.10802891207140057,0.07656846253129616,-0.16371246282675572,0.0894836081611857,-0.13841724721490462,-0.046409494498540635,-0.11302091943541291,0.03964515134023831,-0.005262002550235275,0.06533762867836897,0.0248889327895951,0.13155860271731318,-0.05026632209908965,0.0413266068721703,0.17746419311472567,-0.045449909656217334,-0.02495765390684653,-0.016533385644325098,0.015030323435316493,-0.18276249209366321,-0.02851538894734651,0.027131970452949728,-0.0982033161633862,0.1896058744438714,0.009777640174503301,-0.03977907558552584,0.026973732714115174,0.05249701593503695,0.05376444212884887
R-rHipp - R-A10m,-0.07783441759621364,0.10724249281336554,-0.0938283551143729,-0.04077271852586135,-0.011389110122432516,-0.0006434510398831902,-0.049729849568952406,-0.18435495375127942,-0.1838259848808103,0.003048364012194561,-0.04069808030285898,0.06329990286579092,0.08432749126142919,0.019638220637962674,-0.10308952176824157,-0.0800999266227025,0.15764420203394047,-0.13204774777896228,0.03620015785590464,-0.08462551115278696,0.058264463410031456,-0.12825593433780488,-0.06387259709252938,-0.09664968640759321,-0.1536089317172159,-0.04426311985090838,0.1233947714383205,-0.05479093880716572,0.05458023945127989,0.01619488883980815
R-rHipp - L-A11l,-0.10770622312005103,0.11350511922086916,-0.1677294625609425,0.09130462368655871,0.11662116410564112,-0.0625820114690115,0.12025163110603371,-0.04912284841128502,0.00868654023830967,0.17908657655637336,0.10263995048916921,0.0036929195364303422,0.09219628050979806,-0.05421934444267006,0.05528675216604137,-0.0674071445420154,0.08062679803923649,-0.017567024135105164,-0.10084571905930748,-0.14944252735744915,-0.04102016058748073,-0.12305102576040218,-0.053249202963932096,0.021869157465103053,-0.16791600590727435,-0.0766770101648819,-0.05116962951575315,-0.04940329103046437,0.0436084932134613,0.031215911617640056
R-rHipp - R-A13,-0.1107077180274359,0.03255002359370844,-0.14720398032007143,0.04709703326893531,0.10177599798836656,-0.020957695881011887,0.1784902546674084,0.09100013602058248,-0.14843878362133237,-0.04434990073575996,-0.08405570243734323,-0.09775497370728806,0.14688841646146458,-0.021748853737017036,0.002403010548328227,0.06580465864833006,0.06418294065415356,0.1107122748124095,0.019551880538659024,-0.07178126077388558,0.08169717400348656,-0.003132706164844637,-0.03257246143317695,-0.029302418502738806,-0.11042400285443184,-0.07733328781601087,0.028719493638448626,-0.10359912550372875,0.06255799980787935,-0.05564361834497271
R-rHipp - L-A38m,-0.06059715409697707,-0.03618405645977004,0.008527789153981858,-0.07530517948726197,-0.006052774838746001,-0.21124194144748465,-0.0821586157488283,0.046677797704974024,-0.09356112585539915,0.06326457079962729,-0.10415427764891867,-0.03502559305430824,-0.09384518415600562,-0.0799181338847248,0.16915536676987147,0.019430966018370847,0.04454643182129628,-0.06797907281829572,-0.04369807310670764,-0.0998437750894545,0.09026852065397192,0.042721280236927145,-0.0912359455952043,0.007979671257324454,0.007085982312734638,-0.09399493483966713,-0.13125360313447848,0.07366531927359493,0.07399240219943927,-0.09046053930563439
R-rHipp - R-A22c,-0.1333483551753075,0.06779175752987232,-0.07797848417298549,-0.06882792270390055,0.0709733659398285,0.1261666611103339,-0.0306582722108752,0.03697888117244372,-0.040594935693559035,-0.027866298438411354,0.1882759980626699,-0.017944421421965874,-0.06197369158131236,-0.11844242770885455,0.05828270770735511,0.18945595124657988,0.2574242904265105,-0.07853557249834114,-0.004765885479443677,0.04180578619114414,0.0008966294466420752,-0.06090553086440818,-0.0037989753648341312,-0.11262661396221338,-0.1685319831092592,-0.06973585685551481,-0.079778997489905,-0.10188117569869154,-0.18429288894253365,0.04867807330436441
R-rHipp - L-A22r,-0.0983364831549516,0.018029957173083172,-0.04548563044559279,-0.05751417252974632,-0.007319143963492795,0.0004209246556773202,0.034747493428005774,0.07987289138005983,-0.10968962404164692,-0.22479662825677083,0.15557493234500802,0.09255460405560915,0.133985024408243,-0.1225864939327356,-0.015041184795338641,-0.05629706899164395,0.1020211671271889,-0.12861985216364308,0.05236423138171187,-0.05065450708514985,-0.059325409764632915,-0.12829843962491091,0.0095019821282828,0.01501928658514087,-0.08883009954143209,-0.19778868921019424,-0.13190625526793678,-0.020268030773850126,-0.04385359328947299,-0.09516506666391367
R-rHipp - L-vId/vIg,-0.1429187181115456,0.05846305391246105,-0.048977431779077325,-0.041099775664912096,0.10064730030166892,0.10077037835121666,-0.12652490546324016,0.08452635517944417,0.06309455619646119,0.07612248646075237,0.09904609027490215,-0.05796289978401722,0.17914414920804328,-0.12641886128350885,0.04693554096683297,0.02080960752117737,-0.03869494848323659,-0.1006289941934158,0.04584844340912814,0.0278141688944539,0.1495824309297898,-0.12174943272222966,-0.08967547519907319,0.024376444265283008,-0.10457301213899917,-0.1344485656214881,-0.03148000648027694,-0.22203728391493238,0.051498613408052375,0.09026738855354997
R-rHipp - R-vId/vIg,-0.13478152034049443,0.08465901774034355,-0.04987490777223799,-0.048305615346923424,0.08418876103605302,0.16749848967865616,-0.06158071154918178,0.059369186670138865,-0.084127972260317,0.09647014763701736,-0.0011892486569306457,-0.11405695239242385,0.20329898690511905,-0.047675039190513455,0.10540092684916777,-0.023865470627527183,0.23257354750823755,-0.04670465310135142,0.14402979788161308,-0.03548199298851215,-0.12740228260655476,-0.10566063179326277,-0.06092583466432124,0.11433820002118472,-0.12459498710582334,0.08610673976138156,0.07808861461112158,-0.08053119815599798,-0.0627225124411798,-0.030373817709820828
R-rHipp - R-V5/MT+,-0.11417499015975748,-0.027039643185035742,0.14390300351886262,-0.11919357663716078,-0.11629553195957981,0.0979609936920769,0.19125036813438512,0.025313098636941804,-0.08468755394336197,0.10979783792423327,0.023966903526833692,-0.051993788512060074,0.05232656684080119,-0.05687787796432808,0.1270616222515718,-0.005073046878012494,0.0731148920762398,-0.08306439184956871,0.07480343697110502,0.09973869644073108,-0.027940057913674606,-0.11915555955368173,0.061912730163448455,0.011775056373041007,-0.036224092259282324,-0.17852285733775525,-0.1600050361360112,0.02695192553055999,-0.06058071185159593,0.05619758369362975
R-rHipp - L-mAmyg,-0.06612236255641475,-0.10258552219528327,-0.0337891807962855,0.018074687269067514,-0.1318437395828975,-0.02691839056822604,-0.05341531142348239,-0.038010504867592027,0.08043200737601039,-0.12334153263867907,-0.07597441116149635,-0.1746887237597204,0.034624691017708015,-0.1854377960378392,0.02146014852353427,0.08472863186389223,0.013605147778295523,0.006855973057146723,-0.02412501010823718,0.11389593150361699,-0.10933267523852028,0.13713446829252599,0.0564534582057592,0.05504919174495408,-0.09220672708586217,-0.04990586793919752,0.11202832504090152,-0.1083882736001039,0.07879498691909029,-0.13289704850226886
R-rHipp - R-mAmyg,-0.07660712665542518,-0.09633284178066516,-0.05071307124559665,-0.0017853512299687883,-0.05030349968159057,-0.05679693607523875,-0.044415684179826706,0.03340008554003077,0.07691030406509915,-0.08949505633446665,-0.10353071936638905,-0.018168101495501555,0.12230478816832478,0.012829810876979538,0.12172143696547294,0.0357942560069222,-0.055984376113494626,-0.07902370754654184,-0.1476500239583678,0.06926012307186832,-0.14659321313166274,0.07628553788028589,0.08090197591604475,0.02695796658788282,-0.046989221719541785,-0.013315045491192255,-0.08791415505331726,-0.09057383799053075,0.06657274302901178,-0.01765150458840018
R-rHipp - L-lAmyg,-0.0900697131419967,-0.1813333479496338,0.12736063737598838,0.1565556295360576,-0.024696887699278608,-0.051694828800512675,-0.09771496769322835,-0.03982274648431434,0.016238697708136355,0.040445116436036585,-0.031397504020819124,0.05087537374231612,0.04541415290607892,-0.08465449958314186,-0.029700789995366236,0.036477364905167,0.1733672496635496,-0.013612535236692544,0.14189303451227586,-0.021058552252375587,0.0027490238340574166,0.06566055646596822,0.1465031121837442,0.058773140757483064,0.11331853140999018,-0.17436999982417742,-0.06748432071811017,-0.021257766180211198,-0.05974107165697895,0.1395905154003884
R-rHipp - R-lAmyg,-0.08072072781943396,-0.09157239832485059,0.09457522787739485,-0.1468485669926837,0.10047909223466601,-0.1363224245337439,-0.02091619182070361,-0.10439106417701853,0.09061192936205652,-0.05322279647464353,0.050911454116481514,-0.007494698858790588,0.055091603914594584,-0.040104788199764346,0.00020386128744195528,0.2565635150212436,-0.07742808354900343,0.01911112373904858,-0.027684014249173883,-0.03340098555918608,-0.2017060612551438,-0.006252655660409334,0.1153509631178734,0.0718786910981699,0.027060204621964665,-0.07150960665404565,-0.14526663720985494,0.0808564171451604,0.04287987301728703,-0.0663143262967544
R-rHipp - L-rHipp,-0.05007024580768025,-0.014340663914208879,-0.010380847117784756,-0.020448715165191596,-0.03117466448056428,-0.04865294693175684,-0.06019050661777628,0.027630391959760192,-0.00039988803219379726,-0.012974904269815004,-0.0520439876705624,0.010265073694845086,0.07239952666014873,0.01630181993584503,-0.012152197360790077,0.05002968592998796,0.04891221457790872,0.006024606111161554,-0.11449677654635002,-0.006471086702296583,-0.08836498371445906,0.007930062957643244,0.05090012795210381,-0.09440123876876315,-0.034958065653617844,-0.02582818098926676,-0.060989859236947955,0.09196856640707989,0.1114348134159931,-0.036883233404816196
